<?xml version="1.0"?>
<opencv_storage>
<cascade>
  <stageType>BOOST</stageType>
  <featureType>HAAR</featureType>
  <height>22</height>
  <width>22</width>
  <stageParams>
    <boostType>GAB</boostType>
    <minHitRate>9.9989998340606689e-01</minHitRate>
    <maxFalseAlarm>5.0000000000000000e-01</maxFalseAlarm>
    <weightTrimRate>9.4999999999999996e-01</weightTrimRate>
    <maxDepth>1</maxDepth>
    <maxWeakCount>100</maxWeakCount></stageParams>
  <featureParams>
    <maxCatCount>0</maxCatCount>
    <featSize>1</featSize>
    <mode>ALL</mode></featureParams>
  <stageNum>7</stageNum>
  <stages>
    <!-- stage 0 -->
    <_>
      <maxWeakCount>2</maxWeakCount>
      <stageThreshold>-1.7924906313419342e-01</stageThreshold>
      <weakClassifiers>
        <_>
          <internalNodes>
            0 -1 2 -8.2389518618583679e-02</internalNodes>
          <leafValues>
            7.9487180709838867e-01 -9.3197280168533325e-01</leafValues></_>
        <_>
          <internalNodes>
            0 -1 0 -1.7261925339698792e-01</internalNodes>
          <leafValues>
            8.0366146564483643e-01 -9.7412085533142090e-01</leafValues></_></weakClassifiers></_>
    <!-- stage 1 -->
    <_>
      <maxWeakCount>3</maxWeakCount>
      <stageThreshold>-9.3752092123031616e-01</stageThreshold>
      <weakClassifiers>
        <_>
          <internalNodes>
            0 -1 8 3.0690383911132812e-01</internalNodes>
          <leafValues>
            -9.4202899932861328e-01 6.3218390941619873e-01</leafValues></_>
        <_>
          <internalNodes>
            0 -1 18 -3.5616118460893631e-02</internalNodes>
          <leafValues>
            7.0466482639312744e-01 -8.1076085567474365e-01</leafValues></_>
        <_>
          <internalNodes>
            0 -1 3 -4.5366503298282623e-02</internalNodes>
          <leafValues>
            8.1526893377304077e-01 -6.7673546075820923e-01</leafValues></_></weakClassifiers></_>
    <!-- stage 2 -->
    <_>
      <maxWeakCount>2</maxWeakCount>
      <stageThreshold>-4.3297737836837769e-01</stageThreshold>
      <weakClassifiers>
        <_>
          <internalNodes>
            0 -1 9 -8.1390440464019775e-02</internalNodes>
          <leafValues>
            4.0816327929496765e-01 -9.0551179647445679e-01</leafValues></_>
        <_>
          <internalNodes>
            0 -1 10 -2.2570576518774033e-02</internalNodes>
          <leafValues>
            4.7253441810607910e-01 -8.0452185869216919e-01</leafValues></_></weakClassifiers></_>
    <!-- stage 3 -->
    <_>
      <maxWeakCount>3</maxWeakCount>
      <stageThreshold>-1.5771534442901611e+00</stageThreshold>
      <weakClassifiers>
        <_>
          <internalNodes>
            0 -1 19 -1.9735917448997498e-02</internalNodes>
          <leafValues>
            2.6956522464752197e-01 -9.6363633871078491e-01</leafValues></_>
        <_>
          <internalNodes>
            0 -1 5 -3.0845975503325462e-02</internalNodes>
          <leafValues>
            3.0405172705650330e-01 -9.5370638370513916e-01</leafValues></_>
        <_>
          <internalNodes>
            0 -1 15 7.4284620583057404e-02</internalNodes>
          <leafValues>
            -9.1756886243820190e-01 3.3511945605278015e-01</leafValues></_></weakClassifiers></_>
    <!-- stage 4 -->
    <_>
      <maxWeakCount>3</maxWeakCount>
      <stageThreshold>-8.4332257509231567e-01</stageThreshold>
      <weakClassifiers>
        <_>
          <internalNodes>
            0 -1 11 -2.2680599242448807e-02</internalNodes>
          <leafValues>
            6.6197180747985840e-01 -7.9220777750015259e-01</leafValues></_>
        <_>
          <internalNodes>
            0 -1 7 1.5999212861061096e-02</internalNodes>
          <leafValues>
            -7.6158481836318970e-01 5.0161647796630859e-01</leafValues></_>
        <_>
          <internalNodes>
            0 -1 14 5.5871788412332535e-02</internalNodes>
          <leafValues>
            -5.5273121595382690e-01 8.3823108673095703e-01</leafValues></_></weakClassifiers></_>
    <!-- stage 5 -->
    <_>
      <maxWeakCount>4</maxWeakCount>
      <stageThreshold>-9.7203713655471802e-01</stageThreshold>
      <weakClassifiers>
        <_>
          <internalNodes>
            0 -1 17 -4.0192544460296631e-02</internalNodes>
          <leafValues>
            5.7692307233810425e-01 -7.8947371244430542e-01</leafValues></_>
        <_>
          <internalNodes>
            0 -1 4 2.3237663507461548e-01</internalNodes>
          <leafValues>
            -8.4647583961486816e-01 4.0379509329795837e-01</leafValues></_>
        <_>
          <internalNodes>
            0 -1 12 -1.3361427001655102e-02</internalNodes>
          <leafValues>
            3.8005900382995605e-01 -7.8213661909103394e-01</leafValues></_>
        <_>
          <internalNodes>
            0 -1 6 3.4060256439261138e-05</internalNodes>
          <leafValues>
            2.8385341167449951e-01 -1.</leafValues></_></weakClassifiers></_>
    <!-- stage 6 -->
    <_>
      <maxWeakCount>3</maxWeakCount>
      <stageThreshold>-1.2390217781066895e+00</stageThreshold>
      <weakClassifiers>
        <_>
          <internalNodes>
            0 -1 13 -1.5111568383872509e-02</internalNodes>
          <leafValues>
            2.8947368264198303e-01 -8.2608693838119507e-01</leafValues></_>
        <_>
          <internalNodes>
            0 -1 16 3.9087168872356415e-02</internalNodes>
          <leafValues>
            -7.2163516283035278e-01 3.8144806027412415e-01</leafValues></_>
        <_>
          <internalNodes>
            0 -1 1 -2.9849823564291000e-02</internalNodes>
          <leafValues>
            3.0870032310485840e-01 -9.8323118686676025e-01</leafValues></_></weakClassifiers></_></stages>
  <features>
    <_>
      <rects>
        <_>
          0 0 20 20 -1.</_>
        <_>
          5 0 10 20 2.</_></rects>
      <tilted>0</tilted></_>
    <_>
      <rects>
        <_>
          0 0 8 6 -1.</_>
        <_>
          0 3 8 3 2.</_></rects>
      <tilted>0</tilted></_>
    <_>
      <rects>
        <_>
          0 0 22 4 -1.</_>
        <_>
          0 2 22 2 2.</_></rects>
      <tilted>0</tilted></_>
    <_>
      <rects>
        <_>
          0 1 6 8 -1.</_>
        <_>
          3 1 3 8 2.</_></rects>
      <tilted>0</tilted></_>
    <_>
      <rects>
        <_>
          0 5 22 14 -1.</_>
        <_>
          0 12 22 7 2.</_></rects>
      <tilted>0</tilted></_>
    <_>
      <rects>
        <_>
          0 13 18 5 -1.</_>
        <_>
          9 13 9 5 2.</_></rects>
      <tilted>0</tilted></_>
    <_>
      <rects>
        <_>
          0 15 2 3 -1.</_>
        <_>
          1 15 1 3 2.</_></rects>
      <tilted>0</tilted></_>
    <_>
      <rects>
        <_>
          1 1 6 1 -1.</_>
        <_>
          1 1 3 1 2.</_></rects>
      <tilted>1</tilted></_>
    <_>
      <rects>
        <_>
          1 3 19 18 -1.</_>
        <_>
          1 12 19 9 2.</_></rects>
      <tilted>0</tilted></_>
    <_>
      <rects>
        <_>
          2 0 17 8 -1.</_>
        <_>
          2 2 17 4 2.</_></rects>
      <tilted>0</tilted></_>
    <_>
      <rects>
        <_>
          3 12 6 9 -1.</_>
        <_>
          6 12 3 9 2.</_></rects>
      <tilted>0</tilted></_>
    <_>
      <rects>
        <_>
          4 0 4 6 -1.</_>
        <_>
          4 2 4 2 3.</_></rects>
      <tilted>0</tilted></_>
    <_>
      <rects>
        <_>
          6 2 16 6 -1.</_>
        <_>
          6 2 8 3 2.</_>
        <_>
          14 5 8 3 2.</_></rects>
      <tilted>0</tilted></_>
    <_>
      <rects>
        <_>
          7 0 3 7 -1.</_>
        <_>
          8 1 1 7 3.</_></rects>
      <tilted>1</tilted></_>
    <_>
      <rects>
        <_>
          11 3 6 10 -1.</_>
        <_>
          11 8 6 5 2.</_></rects>
      <tilted>0</tilted></_>
    <_>
      <rects>
        <_>
          13 4 7 18 -1.</_>
        <_>
          13 13 7 9 2.</_></rects>
      <tilted>0</tilted></_>
    <_>
      <rects>
        <_>
          14 0 8 6 -1.</_>
        <_>
          18 0 4 6 2.</_></rects>
      <tilted>0</tilted></_>
    <_>
      <rects>
        <_>
          14 5 8 11 -1.</_>
        <_>
          16 5 4 11 2.</_></rects>
      <tilted>0</tilted></_>
    <_>
      <rects>
        <_>
          19 0 3 8 -1.</_>
        <_>
          17 2 3 4 2.</_></rects>
      <tilted>1</tilted></_>
    <_>
      <rects>
        <_>
          21 0 1 12 -1.</_>
        <_>
          18 3 1 6 2.</_></rects>
      <tilted>1</tilted></_></features></cascade>
</opencv_storage>
